digraph Tree {
node [shape=box, style="filled, rounded", color="black", fontname=helvetica] ;
edge [fontname=helvetica] ;
0 [label="petal width (cm) <= 0.75\ngini = 0.66\nsamples = 93\nvalue = [44, 54, 52]\nclass = versicolor", fillcolor="#fbfefc"] ;
1 [label="gini = 0.0\nsamples = 29\nvalue = [44, 0, 0]\nclass = setosa", fillcolor="#e58139"] ;
0 -> 1 [labeldistance=2.5, labelangle=45, headlabel="True"] ;
2 [label="petal width (cm) <= 1.75\ngini = 0.5\nsamples = 64\nvalue = [0, 54, 52]\nclass = versicolor", fillcolor="#f8fefa"] ;
0 -> 2 [labeldistance=2.5, labelangle=-45, headlabel="False"] ;
3 [label="petal length (cm) <= 5.35\ngini = 0.07\nsamples = 34\nvalue = [0, 53, 2]\nclass = versicolor", fillcolor="#40e686"] ;
2 -> 3 ;
4 [label="petal length (cm) <= 5.05\ngini = 0.04\nsamples = 33\nvalue = [0, 53, 1]\nclass = versicolor", fillcolor="#3de583"] ;
3 -> 4 ;
5 [label="gini = 0.0\nsamples = 31\nvalue = [0, 51, 0]\nclass = versicolor", fillcolor="#39e581"] ;
4 -> 5 ;
6 [label="sepal width (cm) <= 2.75\ngini = 0.44\nsamples = 2\nvalue = [0, 2, 1]\nclass = versicolor", fillcolor="#9cf2c0"] ;
4 -> 6 ;
7 [label="gini = 0.0\nsamples = 1\nvalue = [0, 2, 0]\nclass = versicolor", fillcolor="#39e581"] ;
6 -> 7 ;
8 [label="gini = 0.0\nsamples = 1\nvalue = [0, 0, 1]\nclass = virginica", fillcolor="#8139e5"] ;
6 -> 8 ;
9 [label="gini = 0.0\nsamples = 1\nvalue = [0, 0, 1]\nclass = virginica", fillcolor="#8139e5"] ;
3 -> 9 ;
10 [label="petal length (cm) <= 4.85\ngini = 0.04\nsamples = 30\nvalue = [0, 1, 50]\nclass = virginica", fillcolor="#843de6"] ;
2 -> 10 ;
11 [label="sepal width (cm) <= 3.1\ngini = 0.44\nsamples = 3\nvalue = [0, 1, 2]\nclass = virginica", fillcolor="#c09cf2"] ;
10 -> 11 ;
12 [label="gini = 0.0\nsamples = 2\nvalue = [0, 0, 2]\nclass = virginica", fillcolor="#8139e5"] ;
11 -> 12 ;
13 [label="gini = 0.0\nsamples = 1\nvalue = [0, 1, 0]\nclass = versicolor", fillcolor="#39e581"] ;
11 -> 13 ;
14 [label="gini = 0.0\nsamples = 27\nvalue = [0, 0, 48]\nclass = virginica", fillcolor="#8139e5"] ;
10 -> 14 ;
}